FANN_FLO_2.1
num_layers=3
learning_rate=0.700000
connection_rate=1.000000
network_type=0
learning_momentum=0.000000
training_algorithm=2
train_error_function=1
train_stop_function=1
cascade_output_change_fraction=0.010000
quickprop_decay=-0.000100
quickprop_mu=1.750000
rprop_increase_factor=1.200000
rprop_decrease_factor=0.500000
rprop_delta_min=0.000000
rprop_delta_max=50.000000
rprop_delta_zero=0.100000
cascade_output_stagnation_epochs=12
cascade_candidate_change_fraction=0.010000
cascade_candidate_stagnation_epochs=12
cascade_max_out_epochs=150
cascade_max_cand_epochs=150
cascade_num_candidate_groups=2
bit_fail_limit=9.99999977648258210000e-003
cascade_candidate_limit=1.00000000000000000000e+003
cascade_weight_multiplier=4.00000005960464480000e-001
cascade_activation_functions_count=10
cascade_activation_functions=3 5 7 8 10 11 14 15 16 17 
cascade_activation_steepnesses_count=4
cascade_activation_steepnesses=2.50000000000000000000e-001 5.00000000000000000000e-001 7.50000000000000000000e-001 1.00000000000000000000e+000 
layer_sizes=10 4 4 
scale_included=0
neurons (num_inputs, activation_function, activation_steepness)=(0, 0, 0.00000000000000000000e+000) (0, 0, 0.00000000000000000000e+000) (0, 0, 0.00000000000000000000e+000) (0, 0, 0.00000000000000000000e+000) (0, 0, 0.00000000000000000000e+000) (0, 0, 0.00000000000000000000e+000) (0, 0, 0.00000000000000000000e+000) (0, 0, 0.00000000000000000000e+000) (0, 0, 0.00000000000000000000e+000) (0, 0, 0.00000000000000000000e+000) (10, 5, 1.00000000000000000000e+000) (10, 5, 1.00000000000000000000e+000) (10, 5, 1.00000000000000000000e+000) (0, 5, 1.00000000000000000000e+000) (4, 5, 1.00000000000000000000e+000) (4, 5, 1.00000000000000000000e+000) (4, 5, 1.00000000000000000000e+000) (0, 5, 1.00000000000000000000e+000) 
connections (connected_to_neuron, weight)=(0, -4.24692964553833010000e+000) (1, 2.27400556206703190000e-001) (2, 8.48131030797958370000e-002) (3, 8.00600051879882810000e-001) (4, 5.43850660324096680000e-002) (5, 4.30244588851928710000e+000) (6, 2.45351433753967290000e-001) (7, -9.42419096827507020000e-003) (8, 4.49530184268951420000e-002) (9, -3.29947495460510250000e+000) (0, -4.19330865144729610000e-001) (1, 1.41350656747817990000e-001) (2, -1.73207998275756840000e-001) (3, 1.36385979130864140000e-002) (4, -1.68071798980236050000e-002) (5, -3.52178402245044710000e-002) (6, -1.62402633577585220000e-002) (7, 7.83815141767263410000e-003) (8, -1.12433386966586110000e-002) (9, 3.47446948289871220000e-001) (0, 1.32588100433349610000e+000) (1, -1.37086105346679690000e+000) (2, -2.60905593633651730000e-001) (3, 4.12049949169158940000e-001) (4, -5.85043311119079590000e-001) (5, -4.54162031412124630000e-001) (6, -1.77588105201721190000e-001) (7, -1.64274668693542480000e+000) (8, -3.45668673515319820000e-001) (9, 1.86946082115173340000e+000) (10, 8.48334729671478270000e-001) (11, 2.69993264228105550000e-002) (12, -5.50131639465689660000e-003) (13, 8.03848922252655030000e-001) (10, -1.79213113397696730000e-017) (11, 3.62165016989684140000e-017) (12, 3.14741958378631010000e-017) (13, -8.93166398203158790000e-017) (10, -2.06943821907043460000e+000) (11, -1.85532838106155400000e-001) (12, 9.96498107910156250000e-001) (13, 2.25007700920104980000e+000) 
