FANN_FLO_2.1
num_layers=3
learning_rate=0.700000
connection_rate=1.000000
network_type=0
learning_momentum=0.000000
training_algorithm=2
train_error_function=1
train_stop_function=1
cascade_output_change_fraction=0.010000
quickprop_decay=-0.000100
quickprop_mu=1.750000
rprop_increase_factor=1.200000
rprop_decrease_factor=0.500000
rprop_delta_min=0.000000
rprop_delta_max=50.000000
rprop_delta_zero=0.100000
cascade_output_stagnation_epochs=12
cascade_candidate_change_fraction=0.010000
cascade_candidate_stagnation_epochs=12
cascade_max_out_epochs=150
cascade_max_cand_epochs=150
cascade_num_candidate_groups=2
bit_fail_limit=9.99999977648258210000e-003
cascade_candidate_limit=1.00000000000000000000e+003
cascade_weight_multiplier=4.00000005960464480000e-001
cascade_activation_functions_count=10
cascade_activation_functions=3 5 7 8 10 11 14 15 16 17 
cascade_activation_steepnesses_count=4
cascade_activation_steepnesses=2.50000000000000000000e-001 5.00000000000000000000e-001 7.50000000000000000000e-001 1.00000000000000000000e+000 
layer_sizes=101 4 2 
scale_included=0
neurons (num_inputs, activation_function, activation_steepness)=(0, 0, 0.00000000000000000000e+000) (0, 0, 0.00000000000000000000e+000) (0, 0, 0.00000000000000000000e+000) (0, 0, 0.00000000000000000000e+000) (0, 0, 0.00000000000000000000e+000) (0, 0, 0.00000000000000000000e+000) (0, 0, 0.00000000000000000000e+000) (0, 0, 0.00000000000000000000e+000) (0, 0, 0.00000000000000000000e+000) (0, 0, 0.00000000000000000000e+000) (0, 0, 0.00000000000000000000e+000) (0, 0, 0.00000000000000000000e+000) (0, 0, 0.00000000000000000000e+000) (0, 0, 0.00000000000000000000e+000) (0, 0, 0.00000000000000000000e+000) (0, 0, 0.00000000000000000000e+000) (0, 0, 0.00000000000000000000e+000) (0, 0, 0.00000000000000000000e+000) (0, 0, 0.00000000000000000000e+000) (0, 0, 0.00000000000000000000e+000) (0, 0, 0.00000000000000000000e+000) (0, 0, 0.00000000000000000000e+000) (0, 0, 0.00000000000000000000e+000) (0, 0, 0.00000000000000000000e+000) (0, 0, 0.00000000000000000000e+000) (0, 0, 0.00000000000000000000e+000) (0, 0, 0.00000000000000000000e+000) (0, 0, 0.00000000000000000000e+000) (0, 0, 0.00000000000000000000e+000) (0, 0, 0.00000000000000000000e+000) (0, 0, 0.00000000000000000000e+000) (0, 0, 0.00000000000000000000e+000) (0, 0, 0.00000000000000000000e+000) (0, 0, 0.00000000000000000000e+000) (0, 0, 0.00000000000000000000e+000) (0, 0, 0.00000000000000000000e+000) (0, 0, 0.00000000000000000000e+000) (0, 0, 0.00000000000000000000e+000) (0, 0, 0.00000000000000000000e+000) (0, 0, 0.00000000000000000000e+000) (0, 0, 0.00000000000000000000e+000) (0, 0, 0.00000000000000000000e+000) (0, 0, 0.00000000000000000000e+000) (0, 0, 0.00000000000000000000e+000) (0, 0, 0.00000000000000000000e+000) (0, 0, 0.00000000000000000000e+000) (0, 0, 0.00000000000000000000e+000) (0, 0, 0.00000000000000000000e+000) (0, 0, 0.00000000000000000000e+000) (0, 0, 0.00000000000000000000e+000) (0, 0, 0.00000000000000000000e+000) (0, 0, 0.00000000000000000000e+000) (0, 0, 0.00000000000000000000e+000) (0, 0, 0.00000000000000000000e+000) (0, 0, 0.00000000000000000000e+000) (0, 0, 0.00000000000000000000e+000) (0, 0, 0.00000000000000000000e+000) (0, 0, 0.00000000000000000000e+000) (0, 0, 0.00000000000000000000e+000) (0, 0, 0.00000000000000000000e+000) (0, 0, 0.00000000000000000000e+000) (0, 0, 0.00000000000000000000e+000) (0, 0, 0.00000000000000000000e+000) (0, 0, 0.00000000000000000000e+000) (0, 0, 0.00000000000000000000e+000) (0, 0, 0.00000000000000000000e+000) (0, 0, 0.00000000000000000000e+000) (0, 0, 0.00000000000000000000e+000) (0, 0, 0.00000000000000000000e+000) (0, 0, 0.00000000000000000000e+000) (0, 0, 0.00000000000000000000e+000) (0, 0, 0.00000000000000000000e+000) (0, 0, 0.00000000000000000000e+000) (0, 0, 0.00000000000000000000e+000) (0, 0, 0.00000000000000000000e+000) (0, 0, 0.00000000000000000000e+000) (0, 0, 0.00000000000000000000e+000) (0, 0, 0.00000000000000000000e+000) (0, 0, 0.00000000000000000000e+000) (0, 0, 0.00000000000000000000e+000) (0, 0, 0.00000000000000000000e+000) (0, 0, 0.00000000000000000000e+000) (0, 0, 0.00000000000000000000e+000) (0, 0, 0.00000000000000000000e+000) (0, 0, 0.00000000000000000000e+000) (0, 0, 0.00000000000000000000e+000) (0, 0, 0.00000000000000000000e+000) (0, 0, 0.00000000000000000000e+000) (0, 0, 0.00000000000000000000e+000) (0, 0, 0.00000000000000000000e+000) (0, 0, 0.00000000000000000000e+000) (0, 0, 0.00000000000000000000e+000) (0, 0, 0.00000000000000000000e+000) (0, 0, 0.00000000000000000000e+000) (0, 0, 0.00000000000000000000e+000) (0, 0, 0.00000000000000000000e+000) (0, 0, 0.00000000000000000000e+000) (0, 0, 0.00000000000000000000e+000) (0, 0, 0.00000000000000000000e+000) (0, 0, 0.00000000000000000000e+000) (0, 0, 0.00000000000000000000e+000) (101, 5, 1.00000000000000000000e+000) (101, 5, 1.00000000000000000000e+000) (101, 5, 1.00000000000000000000e+000) (0, 5, 1.00000000000000000000e+000) (4, 5, 1.00000000000000000000e+000) (0, 5, 1.00000000000000000000e+000) 
connections (connected_to_neuron, weight)=(0, 3.27330474853515630000e+001) (1, 3.32597656250000000000e+001) (2, 3.34031295776367190000e+001) (3, 3.26306686401367190000e+001) (4, 3.30762519836425780000e+001) (5, 3.34582901000976560000e+001) (6, 3.33042564392089840000e+001) (7, 3.29974517822265630000e+001) (8, 3.31289787292480470000e+001) (9, 3.28021926879882810000e+001) (10, 3.29194869995117190000e+001) (11, -2.74298191070556640000e-001) (12, 3.25501174926757810000e+001) (13, 3.28760414123535160000e+001) (14, 3.33671607971191410000e+001) (15, 3.31417694091796880000e+001) (16, 3.27556457519531250000e+001) (17, 3.25826416015625000000e+001) (18, 3.30201721191406250000e+001) (19, 3.25929412841796880000e+001) (20, 3.28215637207031250000e+001) (21, 1.27629131078720090000e-001) (22, 3.20676058530807500000e-001) (23, 4.63722586631774900000e-001) (24, 3.25983238220214840000e+001) (25, -1.57928988337516780000e-001) (26, 3.22336286306381230000e-001) (27, 8.20868015289306640000e-002) (28, 3.26160659790039060000e+001) (29, 3.27432250976562500000e+001) (30, 3.27285919189453130000e+001) (31, 3.52866590023040770000e-001) (32, 7.61622786521911620000e-002) (33, 6.30953133106231690000e-001) (34, 1.63508370518684390000e-001) (35, 4.73723948001861570000e-001) (36, -1.42433598637580870000e-001) (37, 4.68949198722839360000e-001) (38, 2.83277302980422970000e-001) (39, 3.31892395019531250000e+001) (40, 3.34448547363281250000e+001) (41, 1.09248924255371090000e+000) (42, 8.98541331291198730000e-001) (43, 2.00033262372016910000e-001) (44, -2.68641114234924320000e-001) (45, -1.93162605166435240000e-001) (46, -5.48414923250675200000e-002) (47, -2.54006594419479370000e-001) (48, 2.99646586179733280000e-001) (49, 3.33621482849121090000e+001) (50, 5.88525831699371340000e-001) (51, 8.25983464717864990000e-001) (52, 1.51825293898582460000e-001) (53, 1.96774259209632870000e-001) (54, 3.89452308416366580000e-001) (55, 6.01442120969295500000e-002) (56, 1.34085536003112790000e-001) (57, 6.38854563236236570000e-001) (58, 4.81771498918533330000e-001) (59, 2.53638569265604020000e-002) (60, 3.29537048339843750000e+001) (61, -4.68171052634716030000e-002) (62, 1.50411054491996770000e-001) (63, -2.76112109422683720000e-001) (64, 3.29493064880371090000e+001) (65, 6.05711579322814940000e-001) (66, 4.24624413251876830000e-001) (67, -2.69438236951828000000e-001) (68, 9.91083145141601560000e-001) (69, 3.33905258178710940000e+001) (70, 3.26117897033691410000e+001) (71, -1.20266512036323550000e-001) (72, -5.19943177700042720000e-001) (73, 3.30691833496093750000e+001) (74, 3.27285919189453130000e+001) (75, 3.28876342773437500000e+001) (76, -8.53374838829040530000e-001) (77, -1.18631064891815190000e+000) (78, 3.27580718994140630000e+001) (79, 3.29741821289062500000e+001) (80, 3.31037063598632810000e+001) (81, 3.32932510375976560000e+001) (82, 3.28333969116210940000e+001) (83, 3.28904914855957030000e+001) (84, 3.31265182495117190000e+001) (85, 3.33133850097656250000e+001) (86, 3.32885742187500000000e+001) (87, 3.26721420288085940000e+001) (88, 3.33409957885742190000e+001) (89, 3.30492248535156250000e+001) (90, 3.27483596801757810000e+001) (91, 3.28305397033691410000e+001) (92, 3.34844207763671880000e+001) (93, 3.30002212524414060000e+001) (94, 3.30993728637695310000e+001) (95, 3.31666717529296880000e+001) (96, 3.33870239257812500000e+001) (97, 3.34578552246093750000e+001) (98, 3.26096687316894530000e+001) (99, 3.28852958679199220000e+001) (100, -8.97680461406707760000e-001) (0, 3.27634849548339840000e+001) (1, 3.32963867187500000000e+001) (2, 3.33005676269531250000e+001) (3, 3.32542953491210940000e+001) (4, 3.27696647644042970000e+001) (5, 3.27269287109375000000e+001) (6, 3.28384094238281250000e+001) (7, 3.34803314208984370000e+001) (8, 3.34026412963867190000e+001) (9, 3.34055938720703120000e+001) (10, 3.27525100708007810000e+001) (11, 7.32899367809295650000e-001) (12, 3.29802665710449220000e+001) (13, -1.29066867828369140000e+001) (14, -1.25998535156250000000e+001) (15, -1.31187648773193360000e+001) (16, -1.24759206771850590000e+001) (17, 3.27465744018554690000e+001) (18, 3.29539184570312500000e+001) (19, 3.34586563110351560000e+001) (20, 3.29710731506347660000e+001) (21, 3.81454944610595700000e-001) (22, 4.80145871639251710000e-001) (23, -8.63143429160118100000e-002) (24, -1.27803869247436520000e+001) (25, 4.92153912782669070000e-001) (26, 1.44153118133544920000e-001) (27, 2.19167508184909820000e-002) (28, -1.24236545562744140000e+001) (29, -1.23353557586669920000e+001) (30, -1.22738351821899410000e+001) (31, 2.73894518613815310000e-001) (32, 8.76749873161315920000e-001) (33, 1.12465000152587890000e+000) (34, 3.10883581638336180000e-001) (35, 1.04715979099273680000e+000) (36, 4.77334886789321900000e-001) (37, 4.63341921567916870000e-001) (38, 1.27421379089355470000e-001) (39, -1.24992866516113280000e+001) (40, -1.29775228500366210000e+001) (41, 7.07424819469451900000e-001) (42, 4.35084909200668330000e-001) (43, 9.82935249805450440000e-001) (44, 3.02835732698440550000e-001) (45, 8.69915902614593510000e-001) (46, 5.64435064792633060000e-001) (47, 1.13783955574035640000e+000) (48, 4.25384670495986940000e-001) (49, -1.31207933425903320000e+001) (50, -1.27207953482866290000e-003) (51, 5.10040879249572750000e-001) (52, 3.79289656877517700000e-001) (53, 3.26513886451721190000e-001) (54, 6.29807233810424800000e-001) (55, 1.01227307319641110000e+000) (56, 3.92184853553771970000e-001) (57, 6.96369886398315430000e-001) (58, 1.79673790931701660000e-001) (59, 6.08916401863098140000e-001) (60, -1.30105733871459960000e+001) (61, 8.07935595512390140000e-001) (62, 1.04966342449188230000e+000) (63, 5.12274265289306640000e-001) (64, -1.26098451614379880000e+001) (65, 1.08077251911163330000e+000) (66, 4.86373931169509890000e-001) (67, 1.52099573612213130000e+000) (68, 1.47128820419311520000e-001) (69, -1.26277389526367190000e+001) (70, -1.29084701538085940000e+001) (71, 3.59705150127410890000e-001) (72, 9.54429447650909420000e-001) (73, 3.33761062622070310000e+001) (74, -1.28808917999267580000e+001) (75, -1.24256839752197270000e+001) (76, 1.54430997371673580000e+000) (77, 8.79145324230194090000e-001) (78, -1.27003889083862300000e+001) (79, -1.30716943740844730000e+001) (80, -1.30813789367675780000e+001) (81, -1.31982707977294920000e+001) (82, 3.33474807739257810000e+001) (83, 3.34465408325195310000e+001) (84, -1.29779529571533200000e+001) (85, -1.28030147552490230000e+001) (86, 3.33998718261718750000e+001) (87, 3.26072082519531250000e+001) (88, 3.33127441406250000000e+001) (89, 3.25551261901855470000e+001) (90, 3.31629219055175780000e+001) (91, 3.26251640319824220000e+001) (92, 3.29468154907226560000e+001) (93, 3.26941223144531250000e+001) (94, 3.32472229003906250000e+001) (95, 3.29560394287109370000e+001) (96, 3.30067367553710940000e+001) (97, 3.30341644287109380000e+001) (98, 3.27316360473632810000e+001) (99, 3.28416366577148440000e+001) (100, -4.46539014577865600000e-001) (0, 3.33796424865722660000e+001) (1, 3.30908584594726560000e+001) (2, 3.27499885559082030000e+001) (3, 3.26635971069335940000e+001) (4, 3.28117218017578130000e+001) (5, 3.34436531066894530000e+001) (6, 3.26373367309570310000e+001) (7, 3.34402084350585940000e+001) (8, 3.34413146972656250000e+001) (9, 3.30204811096191410000e+001) (10, 3.27312316894531250000e+001) (11, 1.90502360463142400000e-001) (12, 3.25940475463867190000e+001) (13, 3.30740699768066410000e+001) (14, 3.29611434936523440000e+001) (15, 3.32849197387695310000e+001) (16, 3.30527038574218750000e+001) (17, 3.29758987426757810000e+001) (18, 3.27065124511718750000e+001) (19, 3.28963012695312500000e+001) (20, 3.29792823791503910000e+001) (21, -6.08017854392528530000e-003) (22, 1.56898185610771180000e-001) (23, -1.10059246420860290000e-001) (24, 3.32020606994628910000e+001) (25, -2.83060461282730100000e-001) (26, 1.38389825820922850000e-001) (27, 5.12247264385223390000e-001) (28, 3.25566635131835940000e+001) (29, 3.31809997558593750000e+001) (30, 3.33883132934570310000e+001) (31, 1.16121321916580200000e-001) (32, -2.94155254960060120000e-002) (33, -1.86552450060844420000e-001) (34, 2.22938135266304020000e-001) (35, -3.24504464864730830000e-001) (36, 3.07271331548690800000e-001) (37, -1.42802521586418150000e-001) (38, -4.93404418230056760000e-002) (39, 3.32827682495117190000e+001) (40, 3.32480850219726560000e+001) (41, 8.70438575744628910000e-001) (42, -5.92135787010192870000e-001) (43, 2.24075689911842350000e-001) (44, 4.24286216497421260000e-001) (45, -2.99877852201461790000e-001) (46, -3.17371696233749390000e-001) (47, 3.85639935731887820000e-001) (48, 4.82332468032836910000e-001) (49, 3.26180000305175780000e+001) (50, 5.78485190868377690000e-001) (51, -2.55763232707977290000e-001) (52, -4.14858937263488770000e-001) (53, -5.87427914142608640000e-001) (54, 1.49185685440897940000e-002) (55, -3.82944166660308840000e-001) (56, 2.31122642755508420000e-001) (57, -9.38197612762451170000e-001) (58, -2.78729617595672610000e-001) (59, -7.14930772781372070000e-001) (60, 3.29093399047851560000e+001) (61, -2.39402785897254940000e-001) (62, 2.55903005599975590000e-001) (63, 4.81994271278381350000e-001) (64, 3.25411987304687500000e+001) (65, -1.61181554198265080000e-001) (66, -7.59201109409332280000e-001) (67, -9.00442898273468020000e-001) (68, 2.22841784358024600000e-001) (69, 3.33920326232910160000e+001) (70, 3.28815155029296870000e+001) (71, -1.53501734137535100000e-001) (72, -1.19236528873443600000e+000) (73, 3.34864807128906250000e+001) (74, 3.31525611877441410000e+001) (75, 3.31766967773437500000e+001) (76, -9.83517765998840330000e-001) (77, -1.13284552097320560000e+000) (78, 3.30231552124023440000e+001) (79, 3.26587677001953130000e+001) (80, 3.33865585327148440000e+001) (81, 3.31135177612304690000e+001) (82, 3.33152008056640620000e+001) (83, 3.28226394653320310000e+001) (84, 3.26340484619140630000e+001) (85, 3.26138801574707030000e+001) (86, 3.25487327575683590000e+001) (87, 3.32307128906250000000e+001) (88, 3.29222488403320310000e+001) (89, 3.26447792053222660000e+001) (90, 3.26125869750976560000e+001) (91, 3.31066589355468750000e+001) (92, 3.34952735900878910000e+001) (93, 3.31429061889648440000e+001) (94, 3.31344223022460940000e+001) (95, 3.27356605529785160000e+001) (96, 3.34743957519531250000e+001) (97, 3.32875595092773440000e+001) (98, 3.33457336425781250000e+001) (99, 3.25289306640625000000e+001) (100, -8.56297910213470460000e-001) (101, 1.00264513492584230000e+000) (102, -2.93489784002304080000e-001) (103, 1.17266678810119630000e+000) (104, 4.26954120397567750000e-001) 
