FANN_FLO_2.1
num_layers=3
learning_rate=0.700000
connection_rate=1.000000
network_type=0
learning_momentum=0.000000
training_algorithm=2
train_error_function=1
train_stop_function=0
cascade_output_change_fraction=0.010000
quickprop_decay=-0.000100
quickprop_mu=1.750000
rprop_increase_factor=1.200000
rprop_decrease_factor=0.500000
rprop_delta_min=0.000000
rprop_delta_max=50.000000
rprop_delta_zero=0.100000
cascade_output_stagnation_epochs=12
cascade_candidate_change_fraction=0.010000
cascade_candidate_stagnation_epochs=12
cascade_max_out_epochs=150
cascade_max_cand_epochs=150
cascade_num_candidate_groups=2
bit_fail_limit=3.49999994039535520000e-001
cascade_candidate_limit=1.00000000000000000000e+003
cascade_weight_multiplier=4.00000005960464480000e-001
cascade_activation_functions_count=10
cascade_activation_functions=3 5 7 8 10 11 14 15 16 17 
cascade_activation_steepnesses_count=4
cascade_activation_steepnesses=2.50000000000000000000e-001 5.00000000000000000000e-001 7.50000000000000000000e-001 1.00000000000000000000e+000 
layer_sizes=10 19 4 
scale_included=0
neurons (num_inputs, activation_function, activation_steepness)=(0, 0, 0.00000000000000000000e+000) (0, 0, 0.00000000000000000000e+000) (0, 0, 0.00000000000000000000e+000) (0, 0, 0.00000000000000000000e+000) (0, 0, 0.00000000000000000000e+000) (0, 0, 0.00000000000000000000e+000) (0, 0, 0.00000000000000000000e+000) (0, 0, 0.00000000000000000000e+000) (0, 0, 0.00000000000000000000e+000) (0, 0, 0.00000000000000000000e+000) (10, 5, 5.00000000000000000000e-001) (10, 5, 5.00000000000000000000e-001) (10, 5, 5.00000000000000000000e-001) (10, 5, 5.00000000000000000000e-001) (10, 5, 5.00000000000000000000e-001) (10, 5, 5.00000000000000000000e-001) (10, 5, 5.00000000000000000000e-001) (10, 5, 5.00000000000000000000e-001) (10, 5, 5.00000000000000000000e-001) (10, 5, 5.00000000000000000000e-001) (10, 5, 5.00000000000000000000e-001) (10, 5, 5.00000000000000000000e-001) (10, 5, 5.00000000000000000000e-001) (10, 5, 5.00000000000000000000e-001) (10, 5, 5.00000000000000000000e-001) (10, 5, 5.00000000000000000000e-001) (10, 5, 5.00000000000000000000e-001) (10, 5, 5.00000000000000000000e-001) (0, 5, 0.00000000000000000000e+000) (19, 5, 5.00000000000000000000e-001) (19, 5, 5.00000000000000000000e-001) (19, 5, 5.00000000000000000000e-001) (0, 5, 0.00000000000000000000e+000) 
connections (connected_to_neuron, weight)=(0, 3.57601904869079590000e+000) (1, 2.30095648765563960000e+000) (2, 3.04633784294128420000e+000) (3, 3.81300783157348630000e+000) (4, -1.41248196363449100000e-001) (5, 1.97815454006195070000e+000) (6, -2.04244591295719150000e-002) (7, -1.22178448364138600000e-002) (8, -1.34232342243194580000e+000) (9, -2.72340345382690430000e+000) (0, -8.01931858062744140000e+000) (1, 1.48606860351562500000e+003) (2, 1.02488541603088380000e+000) (3, 1.31619775295257570000e+000) (4, 4.36245322227478030000e-001) (5, 1.21268999576568600000e+000) (6, 2.03894063830375670000e-001) (7, 2.82521974295377730000e-002) (8, -1.58899867534637450000e+000) (9, 2.04917812347412110000e+000) (0, -3.51519632339477540000e+000) (1, -4.84591498970985410000e-002) (2, -1.78313832730054860000e-002) (3, -3.30493599176406860000e-002) (4, 1.30783468484878540000e-002) (5, 6.21657466888427730000e+000) (6, -8.14474932849407200000e-003) (7, 1.44368689507246020000e-003) (8, -6.49185338988900180000e-003) (9, 6.63214087486267090000e-001) (0, 2.62113742828369140000e+001) (1, 1.44346179440617560000e-002) (2, -3.96038703620433810000e-002) (3, -1.73198990523815160000e-002) (4, 1.28260916098952290000e-002) (5, 1.09016442298889160000e+000) (6, 1.23834479600191120000e-002) (7, 2.22800314077176150000e-004) (8, 2.33073178678750990000e-002) (9, -1.60407791137695310000e+001) (0, 7.86646032333374020000e+000) (1, -8.52211570739746090000e+000) (2, -1.00963139533996580000e+000) (3, -1.28485202789306640000e+000) (4, -4.17895406484603880000e-001) (5, -1.17642247676849370000e+000) (6, -1.95660397410392760000e-001) (7, -2.72291768342256550000e-002) (8, 1.53684401512146000000e+000) (9, -2.07224488258361820000e+000) (0, 1.50000000000000000000e+003) (1, 1.47492419433593750000e+003) (2, 1.50000000000000000000e+003) (3, 1.49981909179687500000e+003) (4, 1.50000000000000000000e+003) (5, -1.23266906738281250000e+003) (6, 1.54130899906158450000e+000) (7, 1.49995703125000000000e+003) (8, -1.49996374511718750000e+003) (9, 1.39416552734375000000e+003) (0, -2.03192787170410160000e+001) (1, 8.25857281684875490000e-001) (2, 2.93931096792221070000e-001) (3, 3.54512065649032590000e-001) (4, 7.59674794971942900000e-003) (5, 4.23626184463500980000e-001) (6, 6.51629362255334850000e-003) (7, 1.67928519658744340000e-003) (8, -7.44789615273475650000e-002) (9, 6.48004055023193360000e+000) (0, 5.62736177444458010000e+000) (1, 4.42975902557373050000e+000) (2, 6.80909204483032230000e+000) (3, 1.59514594078063960000e+000) (4, -1.45990028977394100000e-002) (5, -2.79477844014763830000e-003) (6, -6.40979334712028500000e-002) (7, -1.80850736796855930000e-002) (8, 1.49306005859375000000e+003) (9, -2.36610364913940430000e+000) (0, 1.46693725585937500000e+003) (1, -1.50000000000000000000e+003) (2, 1.49942639160156250000e+003) (3, 1.49999987792968750000e+003) (4, -1.50000000000000000000e+003) (5, 1.49999926757812500000e+003) (6, 6.11162536621093750000e+002) (7, 1.49836181640625000000e+003) (8, 1.16012597656250000000e+003) (9, 1.43692346191406250000e+003) (0, 1.50000000000000000000e+003) (1, -1.36085168457031250000e+003) (2, 1.50000000000000000000e+003) (3, 1.49837255859375000000e+003) (4, 1.49519384765625000000e+003) (5, 1.50000000000000000000e+003) (6, -1.39827270507812500000e+002) (7, -5.69629394531250000000e+002) (8, -1.49929003906250000000e+003) (9, 1.16024621582031250000e+003) (0, -3.21305322647094730000e+000) (1, -4.26547527313232420000e-002) (2, -1.82626489549875260000e-002) (3, -3.34455482661724090000e-002) (4, 1.40438489615917210000e-002) (5, 7.76574182510375980000e+000) (6, -7.85919185727834700000e-003) (7, 1.49973086081445220000e-003) (8, -2.64347251504659650000e-003) (9, -4.28418755531311040000e-001) (0, 2.83558197021484380000e+001) (1, 1.50000000000000000000e+003) (2, -1.11926364898681640000e+000) (3, -7.55289137363433840000e-001) (4, 3.37906926870346070000e-002) (5, -5.07576525211334230000e-001) (6, -7.39404633641242980000e-002) (7, -1.89923644065856930000e-002) (8, -7.03464746475219730000e-001) (9, -1.14312133789062500000e+001) (0, 3.64785842895507810000e+001) (1, 8.33616733551025390000e+000) (2, 5.92232370376586910000e+000) (3, 1.72250318527221680000e+000) (4, 3.19137563928961750000e-003) (5, -1.81219466030597690000e-002) (6, -9.60186570882797240000e-002) (7, -4.18759956955909730000e-002) (8, 3.88618507385253910000e+001) (9, -2.46185493469238280000e+001) (0, 1.49999975585937500000e+003) (1, -1.50000000000000000000e+003) (2, 2.71533996582031250000e+002) (3, 1.00868103027343750000e+003) (4, -2.75828857421875000000e+002) (5, 1.50000000000000000000e+003) (6, 1.18549415588378910000e+002) (7, 1.44417657852172850000e+001) (8, -1.50000000000000000000e+003) (9, 1.19513269042968750000e+003) (0, 4.77497071027755740000e-001) (1, 7.92648851871490480000e-001) (2, 2.87052184343338010000e-001) (3, 3.06632220745086670000e-001) (4, -2.72478330880403520000e-002) (5, -1.27075314521789550000e-001) (6, -1.74717847257852550000e-002) (7, -7.72422458976507190000e-003) (8, -2.08292752504348750000e-001) (9, 2.77368736267089840000e+000) (0, -2.60053157806396480000e+001) (1, 5.62988433837890620000e+001) (2, 5.85480117797851560000e+000) (3, 6.09754514694213870000e+000) (4, 7.73978531360626220000e-001) (5, 2.86537408828735350000e+000) (6, 2.92938560247421260000e-001) (7, 4.17028814554214480000e-002) (8, -3.27762746810913090000e+000) (9, 5.98569679260253910000e+000) (0, 1.70119934082031250000e+001) (1, -3.65087836980819700000e-002) (2, 1.15547046661376950000e+001) (3, 1.49869787597656250000e+003) (4, 2.94049292802810670000e-001) (5, -6.64497792720794680000e-001) (6, -9.62880402803421020000e-002) (7, 5.20901428535580640000e-003) (8, -7.65989840030670170000e-001) (9, -7.46026134490966800000e+000) (0, 4.00928039550781250000e+001) (1, 3.94731551408767700000e-001) (2, 2.14343145489692690000e-001) (3, 2.89095699787139890000e-001) (4, -6.26447703689336780000e-003) (5, 5.43879806995391850000e-001) (6, -6.08493993058800700000e-003) (7, -3.06542613543570040000e-003) (8, 3.01443655043840410000e-002) (9, -1.40489826202392580000e+001) (10, 4.89911362528800960000e-002) (11, -3.46557609736919400000e-002) (12, 1.12739858627319340000e+001) (13, 6.25860071182250980000e+000) (14, -1.40995988622307780000e-002) (15, -1.17875114083290100000e-001) (16, 2.48829097747802730000e+001) (17, 3.84809088706970210000e+000) (18, 1.82641834020614620000e-001) (19, -2.61390525847673420000e-002) (20, -1.07220630645751950000e+001) (21, -2.77895879745483400000e+000) (22, -2.24932599067687990000e+000) (23, 2.82503385096788410000e-002) (24, -4.84265387058258060000e-001) (25, 3.20032201707363130000e-002) (26, -1.16027331352233890000e+000) (27, 1.59513759613037110000e+001) (28, 5.26074171066284180000e+000) (10, -3.90213757753372190000e-001) (11, 6.39498949050903320000e-001) (12, -1.59423366189002990000e-001) (13, -5.21242499351501460000e-001) (14, 8.00634771585464480000e-002) (15, 1.12336337566375730000e-001) (16, -1.21573293209075930000e+000) (17, 5.10787172242999080000e-003) (18, 2.73794680833816530000e-003) (19, 4.22593839466571810000e-002) (20, 2.11025178432464600000e-001) (21, -6.54825940728187560000e-002) (22, 7.11771175265312190000e-002) (23, 5.22342324256896970000e-002) (24, 4.89074802398681640000e+000) (25, -6.14563167095184330000e-001) (26, 7.28162229061126710000e-002) (27, -7.62252807617187500000e-001) (28, -4.53911447525024410000e+000) (10, -4.78638820350170140000e-002) (11, 1.08212442398071290000e+001) (12, -4.14709448814392090000e-001) (13, 1.35046243667602540000e+001) (14, 1.14264326095581050000e+001) (15, -2.28761341422796250000e-002) (16, 2.98974424600601200000e-001) (17, 4.97068651020526890000e-003) (18, -1.64306368678808210000e-002) (19, -1.81572940200567250000e-002) (20, 3.10375928878784180000e-001) (21, -4.03674542903900150000e-002) (22, -8.68195760995149610000e-003) (23, -2.96584255993366240000e-002) (24, 3.04851818084716800000e+000) (25, 5.69830574095249180000e-002) (26, 7.69150629639625550000e-003) (27, 3.58246034011244770000e-003) (28, 1.11513328552246090000e+001) 
