FANN_FLO_2.1
num_layers=3
learning_rate=0.700000
connection_rate=1.000000
network_type=0
learning_momentum=0.000000
training_algorithm=2
train_error_function=1
train_stop_function=1
cascade_output_change_fraction=0.010000
quickprop_decay=-0.000100
quickprop_mu=1.750000
rprop_increase_factor=1.200000
rprop_decrease_factor=0.500000
rprop_delta_min=0.000000
rprop_delta_max=50.000000
rprop_delta_zero=0.100000
cascade_output_stagnation_epochs=12
cascade_candidate_change_fraction=0.010000
cascade_candidate_stagnation_epochs=12
cascade_max_out_epochs=150
cascade_max_cand_epochs=150
cascade_num_candidate_groups=2
bit_fail_limit=9.99999977648258210000e-003
cascade_candidate_limit=1.00000000000000000000e+003
cascade_weight_multiplier=4.00000005960464480000e-001
cascade_activation_functions_count=10
cascade_activation_functions=3 5 7 8 10 11 14 15 16 17 
cascade_activation_steepnesses_count=4
cascade_activation_steepnesses=2.50000000000000000000e-001 5.00000000000000000000e-001 7.50000000000000000000e-001 1.00000000000000000000e+000 
layer_sizes=101 4 2 
scale_included=0
neurons (num_inputs, activation_function, activation_steepness)=(0, 0, 0.00000000000000000000e+000) (0, 0, 0.00000000000000000000e+000) (0, 0, 0.00000000000000000000e+000) (0, 0, 0.00000000000000000000e+000) (0, 0, 0.00000000000000000000e+000) (0, 0, 0.00000000000000000000e+000) (0, 0, 0.00000000000000000000e+000) (0, 0, 0.00000000000000000000e+000) (0, 0, 0.00000000000000000000e+000) (0, 0, 0.00000000000000000000e+000) (0, 0, 0.00000000000000000000e+000) (0, 0, 0.00000000000000000000e+000) (0, 0, 0.00000000000000000000e+000) (0, 0, 0.00000000000000000000e+000) (0, 0, 0.00000000000000000000e+000) (0, 0, 0.00000000000000000000e+000) (0, 0, 0.00000000000000000000e+000) (0, 0, 0.00000000000000000000e+000) (0, 0, 0.00000000000000000000e+000) (0, 0, 0.00000000000000000000e+000) (0, 0, 0.00000000000000000000e+000) (0, 0, 0.00000000000000000000e+000) (0, 0, 0.00000000000000000000e+000) (0, 0, 0.00000000000000000000e+000) (0, 0, 0.00000000000000000000e+000) (0, 0, 0.00000000000000000000e+000) (0, 0, 0.00000000000000000000e+000) (0, 0, 0.00000000000000000000e+000) (0, 0, 0.00000000000000000000e+000) (0, 0, 0.00000000000000000000e+000) (0, 0, 0.00000000000000000000e+000) (0, 0, 0.00000000000000000000e+000) (0, 0, 0.00000000000000000000e+000) (0, 0, 0.00000000000000000000e+000) (0, 0, 0.00000000000000000000e+000) (0, 0, 0.00000000000000000000e+000) (0, 0, 0.00000000000000000000e+000) (0, 0, 0.00000000000000000000e+000) (0, 0, 0.00000000000000000000e+000) (0, 0, 0.00000000000000000000e+000) (0, 0, 0.00000000000000000000e+000) (0, 0, 0.00000000000000000000e+000) (0, 0, 0.00000000000000000000e+000) (0, 0, 0.00000000000000000000e+000) (0, 0, 0.00000000000000000000e+000) (0, 0, 0.00000000000000000000e+000) (0, 0, 0.00000000000000000000e+000) (0, 0, 0.00000000000000000000e+000) (0, 0, 0.00000000000000000000e+000) (0, 0, 0.00000000000000000000e+000) (0, 0, 0.00000000000000000000e+000) (0, 0, 0.00000000000000000000e+000) (0, 0, 0.00000000000000000000e+000) (0, 0, 0.00000000000000000000e+000) (0, 0, 0.00000000000000000000e+000) (0, 0, 0.00000000000000000000e+000) (0, 0, 0.00000000000000000000e+000) (0, 0, 0.00000000000000000000e+000) (0, 0, 0.00000000000000000000e+000) (0, 0, 0.00000000000000000000e+000) (0, 0, 0.00000000000000000000e+000) (0, 0, 0.00000000000000000000e+000) (0, 0, 0.00000000000000000000e+000) (0, 0, 0.00000000000000000000e+000) (0, 0, 0.00000000000000000000e+000) (0, 0, 0.00000000000000000000e+000) (0, 0, 0.00000000000000000000e+000) (0, 0, 0.00000000000000000000e+000) (0, 0, 0.00000000000000000000e+000) (0, 0, 0.00000000000000000000e+000) (0, 0, 0.00000000000000000000e+000) (0, 0, 0.00000000000000000000e+000) (0, 0, 0.00000000000000000000e+000) (0, 0, 0.00000000000000000000e+000) (0, 0, 0.00000000000000000000e+000) (0, 0, 0.00000000000000000000e+000) (0, 0, 0.00000000000000000000e+000) (0, 0, 0.00000000000000000000e+000) (0, 0, 0.00000000000000000000e+000) (0, 0, 0.00000000000000000000e+000) (0, 0, 0.00000000000000000000e+000) (0, 0, 0.00000000000000000000e+000) (0, 0, 0.00000000000000000000e+000) (0, 0, 0.00000000000000000000e+000) (0, 0, 0.00000000000000000000e+000) (0, 0, 0.00000000000000000000e+000) (0, 0, 0.00000000000000000000e+000) (0, 0, 0.00000000000000000000e+000) (0, 0, 0.00000000000000000000e+000) (0, 0, 0.00000000000000000000e+000) (0, 0, 0.00000000000000000000e+000) (0, 0, 0.00000000000000000000e+000) (0, 0, 0.00000000000000000000e+000) (0, 0, 0.00000000000000000000e+000) (0, 0, 0.00000000000000000000e+000) (0, 0, 0.00000000000000000000e+000) (0, 0, 0.00000000000000000000e+000) (0, 0, 0.00000000000000000000e+000) (0, 0, 0.00000000000000000000e+000) (0, 0, 0.00000000000000000000e+000) (0, 0, 0.00000000000000000000e+000) (101, 5, 1.00000000000000000000e+000) (101, 5, 1.00000000000000000000e+000) (101, 5, 1.00000000000000000000e+000) (0, 5, 1.00000000000000000000e+000) (4, 5, 1.00000000000000000000e+000) (0, 5, 1.00000000000000000000e+000) 
connections (connected_to_neuron, weight)=(0, 9.06567275524139400000e-001) (1, 1.42710828781127930000e+000) (2, 1.51396250724792480000e+000) (3, 6.57903015613555910000e-001) (4, 1.53305506706237790000e+000) (5, 8.24140369892120360000e-001) (6, 1.14812946319580080000e+000) (7, 1.30028569698333740000e+000) (8, 7.52996802330017090000e-001) (9, 1.38587939739227290000e+000) (10, 8.17468702793121340000e-001) (11, 1.10333418846130370000e+000) (12, 1.32355964183807370000e+000) (13, 1.42916822433471680000e+000) (14, 1.42212760448455810000e+000) (15, 1.25130915641784670000e+000) (16, 1.63857126235961910000e+000) (17, 1.44401800632476810000e+000) (18, 8.76652538776397710000e-001) (19, 1.28340685367584230000e+000) (20, 1.57179355621337890000e+000) (21, 7.94471561908721920000e-001) (22, 1.61486709117889400000e+000) (23, 8.83969783782958980000e-001) (24, 7.58100450038909910000e-001) (25, 9.85489308834075930000e-001) (26, 1.41853046417236330000e+000) (27, 1.32847881317138670000e+000) (28, 9.30425286293029790000e-001) (29, 7.93672204017639160000e-001) (30, 1.60318398475646970000e+000) (31, 1.20134878158569340000e+000) (32, 1.26117825508117680000e+000) (33, 1.30105435848236080000e+000) (34, 1.61286866664886470000e+000) (35, 6.47849440574646000000e-001) (36, 1.34855520725250240000e+000) (37, 1.09275805950164790000e+000) (38, 9.60524499416351320000e-001) (39, 7.16502666473388670000e-001) (40, 7.96408474445343020000e-001) (41, 6.65128052234649660000e-001) (42, 7.37286150455474850000e-001) (43, 9.71869349479675290000e-001) (44, 9.60678219795227050000e-001) (45, 1.34212946891784670000e+000) (46, 1.44804549217224120000e+000) (47, 1.07624804973602290000e+000) (48, 8.34224641323089600000e-001) (49, 1.62799513339996340000e+000) (50, 1.48687624931335450000e+000) (51, 1.46018970012664790000e+000) (52, 7.01806604862213130000e-001) (53, 1.47955894470214840000e+000) (54, 1.06825435161590580000e+000) (55, 7.21052885055541990000e-001) (56, 1.50765979290008540000e+000) (57, 1.30738782882690430000e+000) (58, 8.16669344902038570000e-001) (59, 9.88287091255187990000e-001) (60, 1.47808325290679930000e+000) (61, 1.15178811550140380000e+000) (62, 8.37729573249816890000e-001) (63, 7.60805964469909670000e-001) (64, 1.11258840560913090000e+000) (65, 9.47273433208465580000e-001) (66, 1.56269311904907230000e+000) (67, 1.56718182563781740000e+000) (68, 9.59479153156280520000e-001) (69, 1.27670443058013920000e+000) (70, 1.10766935348510740000e+000) (71, 9.01432871818542480000e-001) (72, 1.27473676204681400000e+000) (73, 1.49865150451660160000e+000) (74, 1.52140271663665770000e+000) (75, 8.07445883750915530000e-001) (76, 1.07652473449707030000e+000) (77, 6.94520115852355960000e-001) (78, 1.53625249862670900000e+000) (79, 1.54273962974548340000e+000) (80, 6.57165110111236570000e-001) (81, 1.34083819389343260000e+000) (82, 1.29284548759460450000e+000) (83, 1.63531231880187990000e+000) (84, 1.03520369529724120000e+000) (85, 1.00427436828613280000e+000) (86, 6.83359742164611820000e-001) (87, 9.64398324489593510000e-001) (88, 1.38670957088470460000e+000) (89, 1.18105721473693850000e+000) (90, 6.64021193981170650000e-001) (91, 9.78756189346313480000e-001) (92, 1.03575706481933590000e+000) (93, 1.45170414447784420000e+000) (94, 1.27200055122375490000e+000) (95, 6.97779059410095210000e-001) (96, 9.98156189918518070000e-001) (97, 1.02026176452636720000e+000) (98, 6.59194290637969970000e-001) (99, 7.43066191673278810000e-001) (100, 1.51639127731323240000e+000) (0, 9.95450615882873540000e-001) (1, 9.68026220798492430000e-001) (2, 9.49179649353027340000e-001) (3, 1.12762272357940670000e+000) (4, 1.27464449405670170000e+000) (5, 1.18274819850921630000e+000) (6, 7.78484284877777100000e-001) (7, 1.41751587390899660000e+000) (8, 1.50643002986907960000e+000) (9, 9.15667772293090820000e-001) (10, 1.18616080284118650000e+000) (11, 7.16133713722229000000e-001) (12, 1.00095391273498540000e+000) (13, 1.30625021457672120000e+000) (14, 1.04058408737182620000e+000) (15, 1.09844589233398440000e+000) (16, 1.01872444152832030000e+000) (17, 7.98806607723236080000e-001) (18, 8.49812269210815430000e-001) (19, 9.24768209457397460000e-001) (20, 1.28466737270355220000e+000) (21, 1.19307851791381840000e+000) (22, 8.54454755783081050000e-001) (23, 1.19154119491577150000e+000) (24, 1.21063375473022460000e+000) (25, 1.58393776416778560000e+000) (26, 1.20048797130584720000e+000) (27, 1.61274576187133790000e+000) (28, 6.94796800613403320000e-001) (29, 1.62990128993988040000e+000) (30, 1.32700300216674800000e+000) (31, 1.07172858715057370000e+000) (32, 9.07458901405334470000e-001) (33, 8.32994878292083740000e-001) (34, 1.24466836452484130000e+000) (35, 1.46710729598999020000e+000) (36, 9.38787877559661870000e-001) (37, 1.16580772399902340000e+000) (38, 8.33148598670959470000e-001) (39, 1.38375806808471680000e+000) (40, 7.92165696620941160000e-001) (41, 7.35595226287841800000e-001) (42, 8.40035438537597660000e-001) (43, 7.77162253856658940000e-001) (44, 1.56189370155334470000e+000) (45, 9.33100104331970210000e-001) (46, 7.02452301979064940000e-001) (47, 1.08654761314392090000e+000) (48, 1.18966579437255860000e+000) (49, 6.51446580886840820000e-001) (50, 9.03892457485198970000e-001) (51, 8.08829426765441890000e-001) (52, 8.16638588905334470000e-001) (53, 1.03062272071838380000e+000) (54, 9.57019567489624020000e-001) (55, 1.17241787910461430000e+000) (56, 9.84659194946289060000e-001) (57, 1.36451172828674320000e+000) (58, 7.25510895252227780000e-001) (59, 7.86262691020965580000e-001) (60, 6.88340365886688230000e-001) (61, 1.56675136089324950000e+000) (62, 1.21278595924377440000e+000) (63, 9.55728292465209960000e-001) (64, 6.95196509361267090000e-001) (65, 8.99649679660797120000e-001) (66, 1.44875264167785640000e+000) (67, 1.54762816429138180000e+000) (68, 9.64613556861877440000e-001) (69, 1.30947840213775630000e+000) (70, 6.99131846427917480000e-001) (71, 1.03646421432495120000e+000) (72, 1.64216852188110350000e+000) (73, 1.04356622695922850000e+000) (74, 1.62126207351684570000e+000) (75, 7.63788223266601560000e-001) (76, 1.49013519287109380000e+000) (77, 9.96065497398376460000e-001) (78, 1.42689311504364010000e+000) (79, 8.48305821418762210000e-001) (80, 1.21527624130249020000e+000) (81, 1.39851558208465580000e+000) (82, 9.29134011268615720000e-001) (83, 8.75853180885314940000e-001) (84, 1.52549183368682860000e+000) (85, 1.22763574123382570000e+000) (86, 1.40770828723907470000e+000) (87, 8.66475999355316160000e-001) (88, 1.36140644550323490000e+000) (89, 1.11769211292266850000e+000) (90, 1.03514218330383300000e+000) (91, 1.54326224327087400000e+000) (92, 1.24617481231689450000e+000) (93, 9.93452191352844240000e-001) (94, 1.09626293182373050000e+000) (95, 1.41530227661132810000e+000) (96, 1.08002972602844240000e+000) (97, 1.27052474021911620000e+000) (98, 1.50553834438323970000e+000) (99, 7.81128287315368650000e-001) (100, 1.05491113662719730000e+000) (0, 8.54516267776489260000e-001) (1, 8.91225576400756840000e-001) (2, 1.09804618358612060000e+000) (3, 1.13374090194702150000e+000) (4, 7.85125136375427250000e-001) (5, 9.00295317173004150000e-001) (6, 7.56901383399963380000e-001) (7, 7.94779002666473390000e-001) (8, 7.12321341037750240000e-001) (9, 7.77162253856658940000e-001) (10, 8.93531441688537600000e-001) (11, 8.25277924537658690000e-001) (12, 1.08042931556701660000e+000) (13, 1.01140713691711430000e+000) (14, 1.12009024620056150000e+000) (15, 6.57657027244567870000e-001) (16, 1.22951114177703860000e+000) (17, 1.09998309612274170000e+000) (18, 8.22910547256469730000e-001) (19, 9.45059835910797120000e-001) (20, 1.25303089618682860000e+000) (21, 1.15267968177795410000e+000) (22, 1.02099967002868650000e+000) (23, 1.13374090194702150000e+000) (24, 8.42894673347473140000e-001) (25, 1.45287251472473140000e+000) (26, 1.27599728107452390000e+000) (27, 7.99974918365478520000e-001) (28, 9.46289598941802980000e-001) (29, 1.64256811141967770000e+000) (30, 7.51797735691070560000e-001) (31, 1.63377523422241210000e+000) (32, 1.46578526496887210000e+000) (33, 6.96364820003509520000e-001) (34, 9.37127649784088130000e-001) (35, 1.41284263134002690000e+000) (36, 8.26323211193084720000e-001) (37, 1.36817038059234620000e+000) (38, 9.94897186756134030000e-001) (39, 1.02754819393157960000e+000) (40, 7.15672552585601810000e-001) (41, 1.13346421718597410000e+000) (42, 1.38581800460815430000e+000) (43, 7.88291871547698970000e-001) (44, 6.65527701377868650000e-001) (45, 1.51983475685119630000e+000) (46, 6.85942292213439940000e-001) (47, 1.03215992450714110000e+000) (48, 8.90856683254241940000e-001) (49, 7.21729278564453130000e-001) (50, 1.24469912052154540000e+000) (51, 1.39359641075134280000e+000) (52, 1.07812345027923580000e+000) (53, 1.39221286773681640000e+000) (54, 1.55147123336791990000e+000) (55, 6.59317255020141600000e-001) (56, 1.44982874393463130000e+000) (57, 1.53025722503662110000e+000) (58, 1.03191399574279790000e+000) (59, 1.64681100845336910000e+000) (60, 8.48090589046478270000e-001) (61, 1.36325120925903320000e+000) (62, 1.18643760681152340000e+000) (63, 8.62909615039825440000e-001) (64, 1.18766736984252930000e+000) (65, 1.19609141349792480000e+000) (66, 1.59091687202453610000e+000) (67, 1.63463592529296880000e+000) (68, 9.31255400180816650000e-001) (69, 9.62030947208404540000e-001) (70, 8.66014838218688960000e-001) (71, 1.25309240818023680000e+000) (72, 1.04181385040283200000e+000) (73, 1.63319098949432370000e+000) (74, 1.13497066497802730000e+000) (75, 8.96944165229797360000e-001) (76, 1.02770197391510010000e+000) (77, 1.09208166599273680000e+000) (78, 8.89995813369750980000e-001) (79, 9.65843319892883300000e-001) (80, 1.48303318023681640000e+000) (81, 7.40545153617858890000e-001) (82, 9.80939030647277830000e-001) (83, 1.37419641017913820000e+000) (84, 8.13625633716583250000e-001) (85, 1.34372818470001220000e+000) (86, 1.59417581558227540000e+000) (87, 6.66234850883483890000e-001) (88, 1.54341602325439450000e+000) (89, 1.36303591728210450000e+000) (90, 8.30904185771942140000e-001) (91, 1.41407251358032230000e+000) (92, 7.95117199420928960000e-001) (93, 1.46181917190551760000e+000) (94, 9.61692810058593750000e-001) (95, 6.47480487823486330000e-001) (96, 1.49616122245788570000e+000) (97, 1.23658239841461180000e+000) (98, 7.27970480918884280000e-001) (99, 9.85735237598419190000e-001) (100, -1.12409055233001710000e-001) (101, 9.24706757068634030000e-001) (102, 9.23446178436279300000e-001) (103, 1.07120585441589360000e+000) (104, 6.04806661605834960000e-001) 
